<?xml version="1.0"?>
<opencv_storage>
<stage9>
  <maxWeakCount>6</maxWeakCount>
  <stageThreshold>-6.6846621036529541e-01</stageThreshold>
  <weakClassifiers>
    <_>
      <internalNodes>
        0 -1 86193 -1.4153641648590565e-02</internalNodes>
      <leafValues>
        4.7058823704719543e-01 -5.6896549463272095e-01</leafValues></_>
    <_>
      <internalNodes>
        0 -1 140576 -8.6790192872285843e-03</internalNodes>
      <leafValues>
        4.3881896138191223e-01 -4.7361028194427490e-01</leafValues></_>
    <_>
      <internalNodes>
        0 -1 108649 -5.0144956912845373e-04</internalNodes>
      <leafValues>
        4.1620662808418274e-01 -5.2720481157302856e-01</leafValues></_>
    <_>
      <internalNodes>
        0 -1 17 1.7278891755267978e-04</internalNodes>
      <leafValues>
        3.9989674091339111e-01 -5.3322082757949829e-01</leafValues></_>
    <_>
      <internalNodes>
        0 -1 5860 -1.1001765727996826e-02</internalNodes>
      <leafValues>
        -8.9480960369110107e-01 2.7442482113838196e-01</leafValues></_>
    <_>
      <internalNodes>
        0 -1 155259 1.1177193373441696e-03</internalNodes>
      <leafValues>
        2.4768117070198059e-01 -8.0232661962509155e-01</leafValues></_></weakClassifiers></stage9>
</opencv_storage>
