<?xml version="1.0"?>
<opencv_storage>
<stage5>
  <maxWeakCount>5</maxWeakCount>
  <stageThreshold>-5.0407063961029053e-01</stageThreshold>
  <weakClassifiers>
    <_>
      <internalNodes>
        0 -1 103606 -1.2911524390801787e-03</internalNodes>
      <leafValues>
        8.9999997615814209e-01 -5.2307695150375366e-01</leafValues></_>
    <_>
      <internalNodes>
        0 -1 147971 -1.7434542533010244e-03</internalNodes>
      <leafValues>
        5.9842669963836670e-01 -4.8366680741310120e-01</leafValues></_>
    <_>
      <internalNodes>
        0 -1 67013 7.7102119103074074e-03</internalNodes>
      <leafValues>
        -3.7045097351074219e-01 8.9829587936401367e-01</leafValues></_>
    <_>
      <internalNodes>
        0 -1 21032 1.3738043606281281e-02</internalNodes>
      <leafValues>
        3.7970250844955444e-01 -1.</leafValues></_>
    <_>
      <internalNodes>
        0 -1 48767 -1.2267527636140585e-03</internalNodes>
      <leafValues>
        6.4493077993392944e-01 -5.8867192268371582e-01</leafValues></_></weakClassifiers></stage5>
</opencv_storage>
