<?xml version="1.0"?>
<opencv_storage>
<stage13>
  <maxWeakCount>5</maxWeakCount>
  <stageThreshold>-6.5696531534194946e-01</stageThreshold>
  <weakClassifiers>
    <_>
      <internalNodes>
        0 -1 122300 8.0565275857225060e-04</internalNodes>
      <leafValues>
        -6.2745100259780884e-01 2.9166665673255920e-01</leafValues></_>
    <_>
      <internalNodes>
        0 -1 11968 -1.1589661240577698e-02</internalNodes>
      <leafValues>
        6.4747512340545654e-01 -3.5623490810394287e-01</leafValues></_>
    <_>
      <internalNodes>
        0 -1 148380 1.1546184396138415e-04</internalNodes>
      <leafValues>
        2.5335422158241272e-01 -8.7446129322052002e-01</leafValues></_>
    <_>
      <internalNodes>
        0 -1 93731 1.7526055671623908e-05</internalNodes>
      <leafValues>
        -4.9262037873268127e-01 4.2734897136688232e-01</leafValues></_>
    <_>
      <internalNodes>
        0 -1 41618 7.3120137676596642e-04</internalNodes>
      <leafValues>
        -3.5313090682029724e-01 6.4974576234817505e-01</leafValues></_></weakClassifiers></stage13>
</opencv_storage>
