<?xml version="1.0"?>
<opencv_storage>
<stage7>
  <maxWeakCount>5</maxWeakCount>
  <stageThreshold>-1.1698539257049561e+00</stageThreshold>
  <weakClassifiers>
    <_>
      <internalNodes>
        0 -1 137166 -8.2080038264393806e-03</internalNodes>
      <leafValues>
        7.1428573131561279e-01 -5.7377046346664429e-01</leafValues></_>
    <_>
      <internalNodes>
        0 -1 12320 -4.2295404709875584e-03</internalNodes>
      <leafValues>
        6.2338107824325562e-01 -4.5641019940376282e-01</leafValues></_>
    <_>
      <internalNodes>
        0 -1 132951 -8.2246284000575542e-04</internalNodes>
      <leafValues>
        7.4810415506362915e-01 -4.2719078063964844e-01</leafValues></_>
    <_>
      <internalNodes>
        0 -1 35978 -8.6149782873690128e-04</internalNodes>
      <leafValues>
        4.8486080765724182e-01 -5.7585036754608154e-01</leafValues></_>
    <_>
      <internalNodes>
        0 -1 127486 -1.2230742722749710e-03</internalNodes>
      <leafValues>
        8.4357291460037231e-01 -3.1192696094512939e-01</leafValues></_></weakClassifiers></stage7>
</opencv_storage>
