<?xml version="1.0"?>
<opencv_storage>
<stage19>
  <maxWeakCount>5</maxWeakCount>
  <stageThreshold>-4.7247540950775146e-01</stageThreshold>
  <weakClassifiers>
    <_>
      <internalNodes>
        0 -1 154758 2.6241233572363853e-03</internalNodes>
      <leafValues>
        -4.8837208747863770e-01 6.1904764175415039e-01</leafValues></_>
    <_>
      <internalNodes>
        0 -1 150993 -4.0918290615081787e-03</internalNodes>
      <leafValues>
        5.6927955150604248e-01 -3.8325253129005432e-01</leafValues></_>
    <_>
      <internalNodes>
        0 -1 31439 -1.9701227545738220e-02</internalNodes>
      <leafValues>
        5.7206130027770996e-01 -3.9257678389549255e-01</leafValues></_>
    <_>
      <internalNodes>
        0 -1 13879 4.7768512740731239e-04</internalNodes>
      <leafValues>
        -6.3014501333236694e-01 4.2629650235176086e-01</leafValues></_>
    <_>
      <internalNodes>
        0 -1 28475 5.6667919270694256e-03</internalNodes>
      <leafValues>
        -4.9529913067817688e-01 5.0181531906127930e-01</leafValues></_></weakClassifiers></stage19>
</opencv_storage>
