<?xml version="1.0"?>
<opencv_storage>
<stage24>
  <maxWeakCount>5</maxWeakCount>
  <stageThreshold>-4.8666173219680786e-01</stageThreshold>
  <weakClassifiers>
    <_>
      <internalNodes>
        0 -1 121607 -4.1627500206232071e-02</internalNodes>
      <leafValues>
        8.6666667461395264e-01 -4.6666666865348816e-01</leafValues></_>
    <_>
      <internalNodes>
        0 -1 17219 1.0668151662684977e-04</internalNodes>
      <leafValues>
        3.8505932688713074e-01 -6.8413633108139038e-01</leafValues></_>
    <_>
      <internalNodes>
        0 -1 52818 1.2506040548032615e-05</internalNodes>
      <leafValues>
        -5.1712089776992798e-01 4.8972025513648987e-01</leafValues></_>
    <_>
      <internalNodes>
        0 -1 70730 -1.5850400086492300e-04</internalNodes>
      <leafValues>
        -5.8590644598007202e-01 4.5886090397834778e-01</leafValues></_>
    <_>
      <internalNodes>
        0 -1 154750 2.1495383232831955e-02</internalNodes>
      <leafValues>
        -2.8443983197212219e-01 9.3895131349563599e-01</leafValues></_></weakClassifiers></stage24>
</opencv_storage>
