<?xml version="1.0"?>
<opencv_storage>
<stage20>
  <maxWeakCount>5</maxWeakCount>
  <stageThreshold>-6.9857513904571533e-01</stageThreshold>
  <weakClassifiers>
    <_>
      <internalNodes>
        0 -1 141844 -3.8198556751012802e-02</internalNodes>
      <leafValues>
        7.5000000000000000e-01 -4.6268656849861145e-01</leafValues></_>
    <_>
      <internalNodes>
        0 -1 162335 2.2540084319189191e-04</internalNodes>
      <leafValues>
        1.7049884796142578e-01 -1.</leafValues></_>
    <_>
      <internalNodes>
        0 -1 160245 1.1247100774198771e-03</internalNodes>
      <leafValues>
        -3.6010703444480896e-01 5.0667661428451538e-01</leafValues></_>
    <_>
      <internalNodes>
        0 -1 37992 -2.2146572882775217e-04</internalNodes>
      <leafValues>
        -5.7674622535705566e-01 4.2052516341209412e-01</leafValues></_>
    <_>
      <internalNodes>
        0 -1 134005 -7.3258671909570694e-03</internalNodes>
      <leafValues>
        6.6618764400482178e-01 -3.3631783723831177e-01</leafValues></_></weakClassifiers></stage20>
</opencv_storage>
