<?xml version="1.0"?>
<opencv_storage>
<stage15>
  <maxWeakCount>5</maxWeakCount>
  <stageThreshold>-4.6873196959495544e-01</stageThreshold>
  <weakClassifiers>
    <_>
      <internalNodes>
        0 -1 144943 -1.1890473961830139e-01</internalNodes>
      <leafValues>
        1. -4.4927537441253662e-01</leafValues></_>
    <_>
      <internalNodes>
        0 -1 1184 2.3714121198281646e-05</internalNodes>
      <leafValues>
        -5.5455946922302246e-01 3.1115999817848206e-01</leafValues></_>
    <_>
      <internalNodes>
        0 -1 26463 -1.7991799861192703e-02</internalNodes>
      <leafValues>
        4.9077531695365906e-01 -4.4362694025039673e-01</leafValues></_>
    <_>
      <internalNodes>
        0 -1 100614 -1.9852691330015659e-03</internalNodes>
      <leafValues>
        6.2715464830398560e-01 -3.7784162163734436e-01</leafValues></_>
    <_>
      <internalNodes>
        0 -1 37806 1.0682780703064054e-04</internalNodes>
      <leafValues>
        -4.4355031847953796e-01 5.1723229885101318e-01</leafValues></_></weakClassifiers></stage15>
</opencv_storage>
